{"hidden_layer": {"count_neurons": 4, "neurons": [{"weights": [0.28995390776726215, 3.8931050376352596, -9.621243259611273, 5.639199465463607, -5.869827114565831, 13.491075088099722, -3.8685336125730623, -1.1776264102999923, 10.261036519947055, -3.434536159819383, -2.227926510411209, 5.281822352021342, 0.5282229373752756, -3.0813959576514933, 3.1110139400038963, 2.595916998935993, -5.626831913218162, 1.1456069644704077, -1.2901077340588718, -3.9468079149360182, -0.5755669482145962, 3.489725349758951, 2.7784023059028526, 3.837811909727203, 2.623978967899687, 3.788480990299166, 10.633196920831002, -0.7247081631558185, 2.7049992370083866, 7.745520527430698, -0.72506998394171, 6.5737105386283305, 9.767874801271473, -5.189831131869282, 5.229152036208642, 4.611691341618766, 0.6877342825620804, 5.281244779643047, 6.675949122808037, -2.906529794735571, -1.4088266237484641, 2.6254899359457067, -2.630465924930898, -3.2346663340490522, 1.5465279916340806, 12.210743517209728, -8.318030477401296, -1.131729040241439, 6.102456797888615, -5.041830531791893, 6.420741041961398, 2.2986008313227906, -0.5995376813665325, 2.885680943237876, -1.6782164545608158, 0.48171156187202274, 5.051534873329185, -2.66209719335995, -4.610383947282585, -3.1022219616745557, 1.9001068832144374, -9.236621167330357, 2.323155988923458, -3.9542339640590716, -7.267877469372265, 5.11538791778477, 3.7026489023730105, -6.030081732827274, 9.780422349680762, -1.3841665641719478, -5.260908924783256, 8.449606204664455, -5.0268595183609515, -7.497480235759226, -5.714937279277632, -4.018804445400838, 5.00130124921794, 5.898655581733167, 2.9235084552816155, -5.727103881566638, 6.735573505602533, 4.210682861810026, 9.264135870539716, -0.5834902150008001, -4.025161721873605, 0.6424013164314606, -4.915031908952743, -0.14053351662251282, 5.842977284666862, 8.556368792979326, -6.106320631827168, -2.3909036035292583, -7.2111113958568, 2.2334949603271013, 1.8396790032476653, 1.0653600325662975, 5.894499807494002, 3.3468136719843655, -6.897505157024332, -1.9275002105241437, 0.3917316108325884, 7.151646151910931, 3.9160168306540166, -2.582669241223734, 1.000938518151471, 3.530639288518855, 2.6456808394362894, 3.6311274156743996, -1.6706612924097266, 7.569022044106682, 4.926460345875662, -6.08578054382187, 3.559380140426027, -0.58298154200079, -7.42057823212039, 4.241276246745167, -0.5473078532890665, 1.6038205721047298, 5.135510927402342, 5.114400191479887, -8.263892084876078, 2.79441352527666, -3.671603071592485, 1.5532008546079308, 3.026055032629538, 4.210447048433774, -0.07083032599596666, -1.8375096002049955, -0.19554612230324722, 4.529865431394031, -3.6976688696156783, 2.174522387839911, 2.4810510873884506, -3.0073519823048303, 2.7441979902751554, 4.986849829356862, 4.527136344317282, 3.500670908664753, -2.2158616269785147, -7.212203550197922, 2.402608437796669, 1.0053105701814138, -8.165285609997271, -8.277790824129365, 3.6756434221956753, -10.262524420294861, -4.027468014456891, 6.767438918265664, 0.9796767521588612, 1.1485125197064847, 4.864916899875938, -2.5961922753788174, -0.007794670568738635, -0.910246796923765, -1.706911374049868, -0.47037713690045935, -4.539598950008132, -8.72023113593226, -1.7317034063271355, 4.58800538799679, -10.065868090587019, 2.4438792858909193, -6.517148187305677, -0.8679990654414335, 5.5795883940169215, -0.38250488997729365, -5.721280960410559, -0.7389918748532049, -3.9779238070926013, -6.471855116322924, -1.4918336226857933, -2.0270148364438407, -1.3355254554577811, 7.34478522645588, 4.601089398711376, 0.2780831436922136, -8.072426903527038, 0.6246712956745337, 3.088652256106211, -1.9903728664642142, -4.647902877648941, 2.0206644118222403, 1.327249793563124, 3.592662306147002, 7.552382532979982, 6.735603549279763, -3.395380338733858, -4.947467431780065, 2.00795790320154, -1.8513142064978507, 3.7862845744178997, 2.6557010040872955, -4.741549149204374, -1.493115555685475, -4.138920890977631, 0.38631707465624127, 3.7265570161051844, -2.239824506825551, -1.3730842731891602, -0.482312467509731, 6.001149653191481, -1.3719236687820764, -6.888973162915097, 7.448179724725487, 0.7206498961096137, 6.247937694106445, 2.620511764499121, 0.8496409735476469, -3.731936790280589, 2.258308894603946, -2.0794035426568223, -2.5164173615068153, 2.512925380465605, -1.9654199297045392, -2.519669146400883, 1.3005408509366363, -2.3257723719459613, 0.5155589884217813, -2.017160170779026, -2.5566122599345156, 2.3303993025587806, 5.300155572775733, -3.007187247534365, 2.59338979647865, -3.413428419012884, -1.6702351783574663, -2.8589129040205057, -2.065111881103519, -2.0854850624640253, -1.5922935031872985, -0.5862037660242654, 7.317586096381895, -11.448667555234236, 3.035089569276824, 4.419365579882088, -10.16875833738601, 3.0579709198254617, -0.6607060656497724, -3.558908505401946, -2.893164464695698, -3.714861182881018, -10.621270971057974, -2.7323448389754055, 2.7682019992162177, 1.8701058423092132, -10.413081606877231, 0.36982696099791773, -3.377727550612265, 2.8667563916118537, 6.885796877392225, 5.760168600355165, 1.5489089426635376, 3.657758626140791, -2.6676233320578575, -2.107223198790867, -0.5149137478544619, -1.9704183871222993, -9.480446498345382, 0.8867034928862818, -2.010422989710603, -8.546349993968247, -2.3992969637497374, -2.377126331337456, -3.4262799390155463, -3.4023191386648377, 7.553861022539312, -5.3072952969162275, 3.1598114105265225, -3.488671154859102, 0.6848715315945643, -1.6847741112823589, -2.211383128573221, -2.7204118586793946, 3.504928463368436, -3.1510186982241253, -0.3579660184791763, -1.0181437691718747, -4.294276981930214, 0.49157968417476083, 7.049859483696905, 1.8491783900785577, 1.9014684562720772, 4.86913746644379, 2.5422014640221313, -2.93399592110383, 1.0748731855928215, -0.26825187372600134, 0.7428895455485562, 5.299174747971495, 0.26022281942530195, -0.045957344315930224, 4.528710101173756, -0.5163854309568413, 2.916416270036902, -2.2359748239907, -2.5702135355879676, 1.7803889962818917, -2.0510913718869497, 2.89651936534706, -1.4523854598698858, 0.17998029368937665, 1.3954075110344757, 9.17634004888419, 5.48972859890369, 4.964382070889807, 4.651424390647437, -3.4099067108645005, -0.39788201530957434, -7.58514649425068, -7.154012454249166, 0.4507775888025248, -0.4832731992516212, 5.84526638480092, -4.3278737993870635, -11.720497444681197, -2.446197165973031, -0.5108127825208159, -3.0654596137702192, -9.169900340540972, 8.319073530481516, -11.704693324884905, 0.5374091391690557, 5.538483317910859, -9.842593241295967, -2.117776565780327, 3.2491929423951986, -1.393443792577725, -4.16406576081897, -2.2142270963808013, -5.955260288752738, -1.0640783571944867, 2.356286453076794, -1.8486877180044416, -1.9482631883690593, 5.946063224065617, -3.259974749718535, -8.099073340351612, 1.4248180999560682, 1.2644352894619095, -2.4178510276038647, 5.4244047668085, 0.5778044850500615, 7.128316812120498, 1.854187099171713, 5.152395185616457, -2.269815428497169, -3.331959785148624, -1.862523431988088, 5.525702304810993, 6.036628863994639, 3.465687460399282, 1.0015872071843006, -6.253477673788015, 6.305879201219295, 3.5006885549914974, 10.018891294301806, 6.026631252289444, -0.8528450462208649, 5.525933199011206, 1.7820917298119312, -6.437078468471181, -7.046604962617391, 1.8701081260871593, -2.875766459145848, 1.1572632230298638, -1.0298805700406837, 3.9059694495806356, 1.2351137957619105, 1.6020695299713268, 3.851755968813744, 11.099062458815935, 1.8802129853128629, -4.343065999661638, 6.810198714579482, 1.926007275187676, 1.4943294469734363, 5.148679565975328, 10.21654029972377, -7.972406688350052, 3.6592694030315305, 6.626357026132716, -5.048514379653743, 4.692442714651423, -2.1865908966841063, -4.283659410742512, 0.416202908353259, -0.3331215392853197, 3.3923859631364097, -2.1280891606924746, -3.033750115484778, 3.9873989405083634, 3.933907832208184, -3.5198263073754563, 6.002197216834334, -6.993283441218453, 0.7419327264724822, 3.189962503314396, 0.5333507558555673, -1.5745735153371783, -1.2487871641361938, 7.311418718388977, -7.1274061660622, -1.8698509768472709, -1.9289136006516547, -6.217938652414191, 4.065674804423433, -3.9544299675724033, -2.1027078769152188, -7.553351256027098, 0.3998693451353305, 5.697327295955651, 5.700303448755382, 3.707046044064771, 2.54514790493422, 0.8464839422424559, 0.37815255242090084, -3.076175849295477, -0.02051057825389827, 3.2069770175817425, -2.0067970078673367, -5.064326716520822, -7.324697153214585, -2.3754211057875945, -1.6454051227031419, 4.611076548539021, -0.23344120306199104, 2.254951396651211, -9.712081876955262, 3.4027690251238454, -3.7921732186417016, -7.656748943466802, -1.4919725069394516, -1.7755349071649928, 9.04601744755109, 4.44649210932679, 1.3221958960630467, -5.402115235818922, 2.611873807505036, -2.8528862486887623, -2.2231075333629504, -5.306325453192943, 8.141614937055962, 3.901279491494916, -10.798339668202935, -1.6033874523012768, 4.2083379684698885, -5.980056446427491, 0.5329187168381646, 6.734439165820116, -3.040014714364796, 6.12653264780128, -2.012577443758937, -2.450716376744061, -8.166989540918856, -3.7508288960806015, -3.124914031287249, 3.0125093673478998, -5.724518807081322, 5.895360547960627, -3.5728016139120853, -0.28084003791587053, -1.9760453625022394, 4.712881033395546, -2.7320477527309643, -3.7631537214546533, 5.804580561005447, -0.1357144271265821, 1.0206910522129824, -0.11206544603372678, 8.17266190352507, 5.936676556167091, -3.72203428215293, -2.6875036344018484, -2.809711842634857, 0.22798488348779464, 3.323425686295557, -3.4384483446982497, 1.5417279507600747, -1.5774352916166798, 1.4492094094316246, 1.8297238027855556, -0.8675818378847884, -5.483235027015825, -2.940432692420183, 7.754006291740406, 2.2257626065424767, 7.845464030047562, -2.7495753977982904, 0.4604693964393552, 2.7861991845548877, -2.2951468632975645, -0.5533947597765427, 10.06246556310775, 0.29520224990775096, 2.92935649991404, 2.498448146871367, -3.9690676037228947, -3.4879193173525316, 0.5417821866744412, 1.0123825455255038, -4.28326327646076, 5.840427145647269, 2.5901350954708624, -3.639639581616613, 1.8344566494437662, -3.0432768677979394, 3.303005633294315, -0.2391241558752027, 12.747795690799675, -0.5212533241523575, 6.107803658108419, -9.5253424865409, -0.2283660418006254, 0.6668485204937851, 5.857756880725378, 0.9235709595319512, 8.067782567704505, 0.9771379961375509, 4.682447585650253, -1.996859396795655, -4.455680263113304, -2.938200391936133, 8.833289232935488, 0.5124698428533093, -4.94883868047191, 0.13407482675218568, -4.44057264255101, -0.4103905837044555, -12.865135638369852, 1.4690999864426753, -3.8267888885752375, -1.3423501965983275, -4.510585231792478, 0.3678761191757719, -4.437445029913379, -9.823588411859145, -7.587813405570683, -3.7792246903381645, -1.090717443779271, 4.752303419384696, 7.96484715509216, 5.803833284603523, 1.658171836243031, -5.446443904404506, -4.7511027379198145, 5.6529584430008395, -2.0788782774046473, 2.4764075551430236, 1.6045458243268402, -2.7367731162517104, 6.3189655186885805, -3.0016526933518244, -5.949545804496113, -0.4767495765025755, -0.6066897811533364, -2.7814592595491403, 1.5653388889133175, 1.6987658345223147, 4.711386019331654, -2.0950165329048875, -9.285257011666857, -4.519792516184651, -5.4186943691498355, -0.5378098463352811, 0.48302942363508233, 11.504338960429832, -2.221691947029049, 2.7888564225480725, 2.3494299123802502, -4.016270185824483, 1.0934464193503532, 3.3044332739858646, 1.3778438061975862, 0.5716156417646194, 4.705465091505669, -3.5426126374267923, 3.18946716707991, 7.750000210247712, 9.869121521270754, 2.597914974934803, 3.5223252734609334, -2.96117512545275, 4.768102397280565, -2.1117499805251265, -0.895987330812597, 3.1637627428649986, -3.8951820940801296, -9.421381401106421, -2.311453226037091, -5.123472510363868, 2.9942984324857083, 0.12300859747904123, -1.3897167434680293, -12.158066469404721, -1.013528706410933, 2.882377113622485, -5.189592330043853, 1.4234903697841348, -5.289734184622352, 0.0611589113909867, -0.9167403016296727, -4.712052566906074, 4.825633260178901, 6.8760987377111915, 3.6795328863674404, -2.4409015320046312, 5.637268671282044, 2.0351576716097908, -4.8164265197079414, 3.3124239725823483, 12.483109618240688, 7.522524384681966, 7.324547924342356, -1.6202798374588494, -5.78788636869237, -15.143406240699424, 0.15507886991668693, 5.423293052148932, 3.6250321900347555, 6.5394573284456445, 1.7851132271392494, 5.29717634538583, 9.9347193730069, -1.709808164114262, -4.306305397370061, 5.912754693724191, -7.980119769056453, -6.684306372840243, -8.36770951368723, 4.696828095525952, -7.106960904444484, 5.0924680917703915, 7.397315242586406, 4.248183060041902, -7.806895844813179, 5.921384306785235, 4.4226264221766245, 2.3576840771353464, -6.434769198662381, 0.23709291175985367, 4.646049610497506, -0.7646466063332292, 3.26331900177401, 5.935479472079315, -8.136703565480289, -2.946575494247042, 8.901877020624905, -7.397043089624498, -0.1101255589559668, 3.8776201437274715, 1.1241581244631795, -7.832835630713104, 1.4191327264777451, 4.974203984891001, 3.749152628833751, 4.728579725160489, 6.485378435921141, 2.7872496431577285, 8.24660291183155, 2.1887378022409965, 6.434309841378235, 3.1268259159617684, 6.487999384795329, -5.785183011978008, -3.7603001604171484, 12.094302463503244, 2.4675073515127566, 3.2093741490545153, 0.4302361621877251, -5.574029244528244, -8.310579962040986, 5.897718246983782, -2.5650315843783797, -7.153805157317751, -2.9192952890371484, -3.451052850211921, 4.656461754781206, 2.7559713766811558, -2.0932207706582395, -10.496898103325773, -2.2771027288616286, -2.9060719401401003, 4.757101961589383, -5.48247392709989, -3.2783177342949914, 0.4239728103104229, -10.456612944633642, -1.3109532842524512, 4.046280366879879, -6.365368010710664, 3.8761233143250955, -4.78096167627987, 1.594031820656341, -7.35391533939284, -6.610532650422277, -6.7025949140590955, -1.6785052338119055, -0.7501108268427645, -1.5833993323125164, -5.99353076448151, 3.6013257363294082, -3.0268957232925002, -1.1614358899902866, -4.500147086330774, -3.5728464954242156, -10.513197724543891, -5.5402515634764615, 0.08252203260345456, -5.612892128477603, -8.44859092056104, -6.485592206779165, 9.748966080085651, 6.845532930884336, 1.122724932782367, -8.950062310513923, 2.8459502618349197, -1.8409241954530917, 1.1211891956072009, -2.5790730460719455, -1.8395144675243784, -0.3892209846937041, 7.550677130980331, 2.8591703121957774, 6.995473081709622, 0.023027745734205032, -3.228987389724936, -1.3054588542108512, -2.4204077768626973, 1.8894125911940105, -0.7141767155986486, 3.060288705190173, -4.05155116302212, 1.1452211200581395, 1.42319684552901, -1.6370353392992476, -4.724712432977758, 3.8525471618601275, 4.6680011794475975, 3.4256730070351074, -2.6457797795570226, 6.901760580275592, 8.197292604506979, 1.2117539488366373, -7.252004906271909, 7.983404391106857, 3.0682293546165407, 2.754966659882557, -3.8396534854602953, 3.4080593798860037, 6.371570635456126, -1.5870159090550213, -0.647765852929111, -7.358918439916835, 0.7349658287407261, -2.2080663640443365, -2.811144446165205, 2.4395832369634713, 7.444759276931449, -2.588033144925733, 8.473769621015107, 0.97947459546458, 2.95389857451048, -4.889220069336256, -11.245617065360246, 7.03028958275335, 1.3385870093288907, 6.6330436765581124, -7.422806181219193], "bias": 0.4676758651323728}, {"weights": [1.7865501195950644, -0.8081136664626716, -4.4940865897058675, 0.1510212959374454, 6.129802070911337, 7.622698480326621, 1.890632460827809, 1.0903256008850255, 0.4580768063019327, 3.1060911901048907, 2.898990032681515, -2.761283631147023, -0.539430625768318, 8.589554227495823, 2.1582163698415173, -1.5568389289319138, 7.814918433076267, 6.179314282143538, -2.0282754959698286, 6.405716677163055, -3.0361983980847262, -2.1645061877019036, 4.6254742956783925, -0.0878700639484205, 0.9751644116288897, -3.4445705469699646, -5.0516406579352156, -2.0629086582957883, 0.2767661640167385, 6.500830149324367, -5.37737178023104, -5.750548547936476, -0.5760368945112623, 10.154810513022163, -1.1939137067546508, -3.3987098699342524, 7.141968051366567, -8.659445145038486, -6.060173017218907, -3.9037414725432673, 1.3732425735737455, 2.6837317253749173, 1.6262181278248184, 4.535272276530525, 5.8544649507626385, -1.0518637729234113, 4.771519657552755, 4.708989229788897, 1.2396544531332758, 6.8708013134334704, 3.7362121230813923, 5.844209604944613, 0.10118193515419789, -2.077947515599168, -14.125731050483154, -9.196795022307173, -4.1592528755361595, -11.022836457253746, -2.641044677050566, -1.381186041488319, -3.4750089134505635, -0.0616038374968406, 0.7946912571552477, -3.3378238900324373, -1.5454777100187518, -5.065967727229473, -0.3315249721438926, 1.1774258824896169, 2.041230062099524, 5.764741850369766, 2.3744033030449323, 3.37626040745164, 6.077369608902335, 3.158663680924166, -0.6802545385032118, 2.7090431694316472, -5.087995307316122, 1.3597866388053605, 2.5295183141735453, 0.5789027004074944, -1.5912112708861441, -1.443603403625034, -1.204746939868728, 2.8566604665349207, 2.708813237368421, 2.098389354163747, -2.678814548001294, 2.7337752252575114, 0.37011500763122684, -6.488209877882479, 8.50861881108805, 3.4579980000279393, 3.0963421007454253, -5.126964335543431, -2.192185890428008, 4.488975661013992, -6.666780994151438, 1.0813827038284107, 3.2097905642081748, 3.275172683762069, -1.4393349490304594, -8.539258441302627, -0.2530870434933318, 10.905365206640672, 2.1689404818159557, -1.9446864658345748, -0.13533572342296107, -7.014696913089804, 0.6274532475380009, 5.5267584031090955, -8.914654003064562, -1.7691731507192077, 0.5394223456568118, 6.472222195191776, 7.48772912613453, -6.220297105130523, 4.484985012559638, -5.674894675912264, -6.983682946057202, -5.427439214014336, 13.317349882466168, -4.39322031782642, 0.1964165817411053, 1.0596747935724986, -9.454150808043345, 0.8176357770156307, 2.0131610658797303, 1.0607158344322662, 4.822113513642636, -0.22769964480793037, -4.363239830506631, -3.4450626949462944, 2.38071447585033, 10.380401234852563, -2.5247684321114767, -1.2707352095444546, -1.1464055420338548, 5.2241196708782365, -6.372786641070683, 0.8595670142148157, -3.2641749924696835, -7.82084142613647, -0.8576190310797366, 2.3843912653435266, -11.560611685038532, 0.43474804836966086, -2.5747573693877586, -0.32710245723366166, -3.425339351169973, 0.4014079939183734, -4.47591270718019, -3.673544976958051, 6.773720702325291, -2.2377117773622803, -2.0031308710312783, 7.682185751811036, 11.323749311539187, 0.2738812967540162, -2.101547636567833, -4.23548011873713, -5.309200771257908, -1.7238764731558158, 1.1381986717385832, 3.7122213824848287, -11.80492892537447, -0.9786596321369585, -6.835615645548192, 3.24569023098461, 11.027471711653979, 6.892662910747592, -1.2970643369093677, 3.3900172417727474, 2.702185684323828, -3.2782461296219534, -3.2512464203377833, 1.2768950598076987, 5.645103544727162, 4.228058737146172, -4.785537888702789, -1.3222811884258403, -2.8098652915676636, -1.69593363831519, 7.270932858727028, -10.476120009591673, -0.6620913183666043, -10.43988356239617, 5.161961424336528, 4.400061451314032, -4.599776224017139, 5.571824431212871, -7.105783698737681, 1.6004121957466666, 2.1123258411131065, 0.6685898756482598, 11.38310065237677, -4.699160363071557, -1.3592317139607255, 4.151054405178579, -1.7850207978635448, 2.5087778337899613, -0.43908390734553937, -8.662250030173459, -3.7093834086435438, -3.763676511000208, -2.2605484518811454, -9.02694160507936, 0.2822179488455845, 4.325350855966071, -3.8884186800384177, -1.6286580975222633, 1.5028693574017185, 1.2038599739198697, -0.7359529958662868, 6.779422426325935, -3.6995739248982, 1.4950755183992352, 11.890265899535699, 1.2751449883491746, -1.3345470775049204, 0.9857722793547098, -0.41708103236702754, -1.2515586845998083, -1.9126651142033815, -2.9066244570286672, -2.44402257573884, -4.395484229889077, -1.3251368564650254, -5.193974814829553, 6.690961150706974, 1.792964240439923, -0.31226567241649666, -5.481691685163123, 14.26632946676138, -7.822238211412491, 2.7212194924171413, 5.543028723103735, -6.59080552467606, -4.822635729763707, -1.029839218305561, 8.342448473697955, 0.01910465693853085, 12.430885443539513, -3.398472190490293, -2.2518647472003313, -5.58239867431605, 6.591970326501018, 5.155908516444065, -4.73409273860902, -8.831740524461015, -1.2075016904137097, -5.265517102312996, 5.402219209891588, 5.663929176676558, 2.358524860901532, -7.55410517107399, -2.37686882844214, 1.791313930543347, -4.398916030736389, -0.32473872344921295, -6.800394730679732, 3.628451568893825, 3.2325832110107897, 0.14427932205468555, 4.024051119608207, 2.015290603527764, 3.2734133655185187, -3.1389473720728307, -0.7885584857011741, 4.899393665068506, -4.12574198201901, -3.996494608606386, -1.565125608261774, 4.841498782782666, -7.051215753628348, -7.131230837382368, -8.041751620708066, -3.227592877781091, 8.549771918808872, 5.972113102529372, 4.541263867028354, -4.145150226093096, -4.825619593574967, 6.091410149976918, -2.8293907489330894, 4.989441601125076, 2.3210436229845346, 6.083272329066308, -6.549701408643248, -4.5817607812553796, 6.796088030579977, -2.021913430556928, -6.275317132105683, 4.805888087863519, -6.183243799350814, 5.405519581521804, -8.868833539550701, 3.3931479885856226, 2.6386972211923085, 1.5077791549778385, 3.914577821603058, -2.595593753043474, -3.8984501948298282, -9.30363816790855, 1.2213001186637704, 3.728474748932158, 0.31232592221979616, 0.2799516846003571, 0.5417301491643627, 1.2294799740688276, 4.939763014689043, -0.7256950021376907, -2.141791575700251, 0.22178315343681235, 3.630157982980347, 13.060187532452652, -5.531766077538076, 3.850686367846118, 2.544808058951468, 6.961688730529201, -6.272367022523273, 5.692302163801064, 2.1230570422046324, -8.231945038842527, 2.1062773075895436, 5.739554648078389, 2.1447613220112096, -3.1703017406012837, 2.5389446642782016, 3.6186059532387467, 2.6286137683788193, -2.404856642187108, -2.579161715434404, -5.924585388713065, -1.4904332815023587, 6.7506133006321205, 3.7434904570872582, 0.7946652017627234, -4.502633007955699, -7.22761166529036, -6.6614244615965434, -9.008973515476004, -6.229647293811561, -7.4520058317945095, 3.4533644794022975, 0.41971174692633473, 1.034143994609793, -0.4696631148967084, 5.406640318517966, -7.614444468439826, -0.12538218128113762, -9.960307202427172, 2.06349273697121, 3.2332608856658327, -3.174572657721007, -7.237690872645979, 1.1170571000053309, -2.361743243591272, 0.45574507832430533, -3.5056424214166197, -0.7783375007289345, 2.128772889302192, 11.392654159029025, 1.39468523336361, -3.2123012629300014, -3.4444447550433615, 7.2341075219521285, 0.027939823085509536, 1.4359245705982175, -1.4157033301856021, 0.5595953604796642, -7.891322507313976, 2.5813491133791797, -2.490578784393566, -1.7428773226130025, 5.264896341436564, 1.577303051409651, -2.4254471643734745, -0.9174684498708998, 16.635914431225565, -6.369799586110127, -1.3182145709453228, -4.8980687336257835, -13.190717534986236, 0.5348115926540542, -0.047397711239562976, 2.63233934192663, 7.028260551945554, 9.054095907910893, 2.6666849340965673, 5.659671488984637, -9.153382354340994, 1.0941652157390356, 1.128653033764508, -6.931612768939834, 14.317260413515164, -6.9009914519525255, -3.443738928874844, -6.516929862486934, -1.2195762938645942, 9.30817837322586, -3.951772551800909, 6.144876896824084, 1.3676411544453773, -1.1521660386152917, 3.461215896912982, -1.555200528264707, 0.15998030276982275, 5.418580025916636, 1.467983588541393, 4.866576827445255, -9.77005621459077, -6.1273553240786365, -1.9712436660247983, -4.368341493030547, 3.288615808342048, -4.005995448442587, -2.063210407363639, 1.2900874144479513, 0.3667282501553639, 10.183562222973983, 5.464906492243944, 3.7044095202848966, 9.486592617981795, -7.919891297524751, -0.9816058326361808, -1.50995655061289, 1.84846705451477, 10.34904725720899, -9.766442629570681, -2.7046270197516353, 6.509045927131826, 1.9149937950304758, -1.1004351988172432, 0.19743908147696573, -7.217215015936337, -0.7599873926846832, 3.567902961972236, -0.46921463215676135, 7.927327423081758, 7.227008046247778, -2.378792563816072, -3.1452623098943584, 6.5388808728682655, 8.124639208275168, 5.292794365181885, -1.8541999533713294, -0.36445924998352447, 2.1628679578602137, -4.08902648039007, 1.4611341600633652, -11.724509150431988, 0.3645135034155445, 3.2413526370650354, 3.463217266376221, -11.479824806987102, 3.18471675209781, -3.7513635784547747, -2.020189440367257, -6.620433807838861, -2.874223164223558, 2.844267415188413, -2.1596266090748606, -6.074918630553045, 0.801565890393008, 3.661568864948916, -3.4368614446341836, 3.470023499364257, -3.0730236442044836, -1.4533774771144687, -3.8612549569569934, -5.0953697180117725, 4.786025930546769, 1.996934941324232, -0.8918888360193554, 0.28092682831687693, -1.1412626928298906, 3.650697754515535, -3.1722710522819533, 0.7516939735001746, -2.25183825616027, -3.9834946684742474, -4.795369143686757, -0.33531016392916757, 5.578501145930878, -1.5477484789384086, -8.113140233334795, -0.8747022777201005, 5.028226842313436, -6.512402411182569, -1.6256819730085221, 3.0284861999695103, 2.9367118258177816, 1.5124205221127456, 1.454525465054786, -3.7906204825713963, 8.325620711223818, -0.8941319569848376, 7.776675633602992, 7.553568316958063, -7.080406552871843, 5.155972241306808, 10.25107945990827, -3.2731725969930907, 4.696512589282137, 3.146482174600032, 1.0154562579871573, -4.009691459319555, 2.2676973811586394, -18.20291530953869, 3.07581499125762, -4.782436686398326, -2.917720835609382, 1.775275361696134, 0.9720766807495813, -4.2534892532544415, -1.6864625089859584, -3.768973275669088, -9.432007397986757, -5.237285270724513, 3.0798163856753753, 4.448902857219171, 3.515233654440479, 0.07654443053903347, 0.9988523886773041, 3.9684740634932876, -5.338611494006228, 4.053798940285323, 0.47019386718397205, 5.151620471969798, 0.33175147565724616, 6.379022529860952, 6.19582043931544, 3.8845705989100874, 3.6633067643817605, 7.735004806094561, -3.359236517429656, 2.4714143036169864, -1.3377883290624861, 5.067771531380908, 2.6526661897309745, -0.904503488607772, -3.553871547902559, -2.7579323656421226, 3.4176907697705166, 0.9049188798538373, -8.917890406955413, -2.9170508543898985, -1.3163208334615955, -1.3961303641328433, 7.382148217698424, -0.6779682634579984, 0.19327482568979246, 10.738141753909638, 2.6011314526041796, 2.0192478154015627, 0.9194883827193676, -2.1760947686568555, -4.035283431866259, -6.458643923107799, 8.138855217671297, 2.9435639676058805, 7.333503121531857, -2.3955265153979286, -0.4716793120322684, -5.566482846348923, -9.30518619046011, 2.7034217785651884, -0.4005897727242944, 2.5654909268137174, 10.291349886331972, -7.84165460426159, -3.5444332113396166, -3.0137976127292885, -2.3162048630357486, -5.18565113257774, -2.2511610185356017, -1.5929358790399257, -2.3274643090044136, -12.216849450547821, -4.318104772192151, -2.16868707683724, 7.191594397459665, 1.041410188836348, 2.63341929535236, -0.140351330168718, 7.193328712443809, 8.267358524032982, 6.132587030990805, 3.5016270470377844, 8.16342353654886, -5.779512539515036, -0.9740575918867179, 4.796731528420201, -1.2772740725273108, 9.471484925903551, -1.3092665654217566, 6.271019044504186, 3.864555931087627, 3.1633306463406563, -1.397675160998717, 11.671246720018923, -0.48634326935669614, -7.041499440633021, -14.65685258181469, -2.175524128674921, 4.2701386259207235, -7.461201228748937, 7.072629685885522, 7.985074272939578, 0.1985528979105472, 1.9016762763134094, -8.030226039255934, -9.817199534715341, 4.920665811646865, 6.610204159354244, 9.812732125581459, 2.647221364979177, -11.572077763784712, -3.1750924312551883, 3.5404827530634697, -1.9840017905754554, -1.5989551943026736, -3.365390406051153, -0.29161509090724863, 4.012706920256795, 4.208444137996709, 0.2979260672542179, 7.982398432337161, 11.201271192223258, -1.3056371373074047, -2.52189499352486, -9.37920733482872, -1.0257799469598898, -2.6814610731087787, 12.327256865885573, 1.4209171210807068, -1.1245476428996242, 6.415160806525353, 2.8296546473617235, 6.422566637885291, -5.927090175809418, 5.667046355156631, -4.923639146365829, -0.6776456274938003, 10.990546588107605, 7.310484892148231, -0.9122086711972349, 0.22240938330369167, -2.1489986197160977, -2.2862698263025885, 3.978556786704341, 1.6276451396368943, -0.48079817495551647, -1.8704798448501356, -11.432791222137126, -2.2623756156326738, 4.159756707124637, -11.60301616730982, -10.665066286282867, 14.753564724305894, -5.638478455773512, -7.627228175729234, 3.572597066989979, 0.564069904563516, 4.373849284237384, 2.267923225338675, 0.08729870996270231, 1.425619134260743, 1.6334896098822527, 7.147223450773333, 8.354908491954617, -1.1899319300604725, 4.330080293145987, 5.411152209644734, 8.31013917792843, 0.172806172130185, -8.354442451403445, -3.9098059988821348, -1.346312387809705, 12.804317929086043, -2.319055117994924, -8.47879215244221, -6.345032584160549, -5.8683756707467944, -3.061822082941344, -3.0953368431196004, -2.0350130977831262, -0.9245477399160018, -5.090821560674161, -4.426861740623746, -2.6907521318189467, 0.9002922939954142, -12.000261091409945, 3.5170239879061347, 5.100184778762482, 2.9252107479069367, 0.6171532306401131, 2.9278656684557225, 0.2406631676737336, 0.899477564928111, -2.8879803621648072, 0.5800137860846094, 2.1274193503426018, -8.648540232865882, 3.6423530200470897, 1.704646423387411, -0.4118730292434005, -2.4014531573246707, 1.9474325710061449, 6.184896836550391, 3.9085912116483397, -7.212483625868944, -3.089992709417723, -0.7248438724418333, 1.7739913273611574, -5.171463640719124, -3.744996896625602, -2.034971287219126, 0.4678126733719957, -2.8039863465370813, 2.2408612076779795, -3.3665280774342974, -2.6756741886284865, -5.598253437043261, -2.7593899640033177, 4.241338484535728, -2.511113897182823, -0.13017764949060576, 0.5835965070663843, 8.73386233763444, -1.8924386306827943, 0.6068449299780518, -3.338305112266213, -0.923646877416015, 6.697843938159435, -3.1689943956540154, -9.233084370188319, -6.371407281640293, -2.1229171662135364, -2.7335237019231564, -11.123081170640408, 1.6131260880660228, 3.5834338446523026, 2.680855529735354, -5.427276952074167, 4.362187559767854, 4.3417547450551455, 0.44750076267966127, 4.923769129242831, -1.594679217774123, -1.5000880751818004, 5.42827123073432, -0.9877667130398686, -6.964859495281209, 6.352022687433243, -0.4309835596209135, 4.183540496215944, -4.1001439171938445, 5.806017032483994, -7.522325850448755, -3.346114648749691, 2.805832392282442, 2.876827759794841, 3.9358652301309287, -2.7027601784479685, 0.1582840546129722, -2.0436347332246982, 2.49338331698662], "bias": 0.4676758651323728}, {"weights": [-1.8970065412253736, -0.42469681903031886, 0.7763600022189064, 1.748990456326195, 10.542175423764164, -2.264823083236169, -0.5635531561318242, -3.294437411117338, -1.8082944611503475, 0.8059743139545839, -8.388497643695283, 2.6095702975717785, -2.759453681283449, 1.755880298442026, -2.1407292241823925, -0.33279741003058516, 2.311529361816824, 3.2216201750736952, -0.9277006601516116, -0.0836342601412797, -2.2832802242165093, 0.043364777312264, -1.5241894414016954, -1.6034444635415217, -3.617750677770819, 10.016962387665487, -1.1253153977964774, -2.666340851054191, 4.066849412019581, -1.5917725407632939, 1.995465834823038, 6.193677093299049, 0.013520815357010874, -0.6583471601215446, -1.8721847956849373, 0.28063590383769416, 1.3309978877646214, -1.2569752830143186, 8.193897592534519, -2.8713114017889843, 1.5431058050159536, -1.8684649681597314, 11.326665382363563, 9.063883104590282, -0.005659242233862897, -9.926928095261013, -1.0107703442298281, -1.9558392129309792, -1.2438100492521433, 3.337217612397471, -2.297154590378291, -0.597156479918802, -2.4820915342915675, -0.152858271763479, 16.157951724974733, -6.920086733725567, 0.841878360798875, 3.8686371196237284, -6.618874018908802, 9.474870591528944, -8.042835585965854, -1.1416793419227005, -9.391725235165516, 1.3795324270513207, -4.074448430645614, -8.70404681721177, 3.356999116027247, 2.06381872259364, -7.327532041051338, -5.038052308913308, 0.39035062794611647, 9.880937695099364, -4.663162000446946, 1.622913433431201, 1.2151490330941963, 1.8346580239318937, -2.349545705985964, -11.07181125746546, -1.2607805573798656, -2.0694447848462643, -0.798004808085051, 0.8070932662836936, 2.9609733536744263, 8.118307957612165, 4.549705414755648, 4.5724583995159, -5.028061253117251, -1.5223880607719842, -5.185844982835803, 8.659127528319203, 1.5383740858892803, -2.193476819518937, -0.17620897277837033, -2.179370770509961, 2.4387457259549015, -4.949136085234863, 3.7335461317832572, -0.8403570701435943, 2.2953601811882374, -3.747585937449847, 3.562884082951611, 2.7232694464753453, -2.5100302722336947, -0.1990995788464322, -7.113048245446152, -7.6708062861803, 4.083664165876732, -6.04100371189601, 3.7850448665404315, -1.3467145190557006, 10.317491415975798, 0.7350438606361782, -5.812541606563831, -6.402008896755732, -10.629460357460077, -8.827761517955562, 2.4415192833328607, -1.1377192686443578, 4.129826772394011, 8.677618350976015, -5.163572468714163, 3.3763217237722363, -2.094697867609029, -6.540459817416089, 3.3973853310393, -5.961096461498101, -1.6851343267858205, -2.092747797345803, -1.5406302106369354, -1.2502736889933408, 9.620970041159413, 8.029096278980758, -9.065659813583665, -9.450413187322217, -1.0873163101968744, -6.402260252667284, -13.254128022196516, -7.9577039328682675, 7.1912030755709475, 2.185929366003871, 3.018549325283881, 4.509708450262784, 12.459938551117402, 7.679300338824317, 4.176283032198094, 9.492127091302338, 2.146597755765621, 1.980892680585559, -6.740247310063166, 2.33827577374466, 7.002100866889085, -5.696124044708168, -3.2787027434160656, 3.651121249088799, 1.6590962918746133, -9.261928823009775, 2.966157652651022, 1.1110258111231723, -2.9640099752157587, 3.7849251747839925, 6.390930461262557, -8.003828632489672, -2.304543314214984, -7.255285672972208, -0.021182413125693172, -4.556097118975518, 3.961085957841272, 4.0760776691310205, -14.122953516895922, -3.4544116724297766, 1.4110607824938755, -5.600508036669497, -1.5466763522201878, -6.064072645434439, -6.339017944740084, 5.727702754042651, 1.518970657826121, 2.1047245235407397, -3.123911903768085, 1.9155188424367835, 10.417551642988355, 5.074134804230486, 1.5702452335479935, 3.811714724761844, -2.262918255763923, 0.15469616715343096, 11.653531641641177, -2.804605143150239, 2.7525479647274604, -0.21441050605134085, 0.5796279378690823, -4.739123859273383, -1.9755402825084625, -14.508732118053189, 0.4142469540313691, -6.238963268034037, 2.5212301352289015, 3.813099339359644, -3.181823337948067, -9.311795314617164, 1.810429067481618, 17.528342347493044, 5.552292409383613, 3.0699895717824695, -0.8079873758443624, 0.27612010562547806, -5.132115958468854, -12.235639591912616, 1.4585200688471223, -0.6717009663605125, 7.694973838331001, -10.90538479556064, -1.2567084168271083, -12.240813651298906, 1.422043042913725, -9.994492422422704, -2.3045701192612156, 2.478685834498639, -3.7635041892027785, 2.9257085735632793, 9.962819675419379, -3.522142376729953, -3.5884003479824496, -7.266347412568421, 1.537936353617445, -0.2934827158815781, 2.8966036166863622, 1.4942287111276713, -2.956679763783267, 6.659895259023293, -6.21654905521419, 1.851008592700484, 0.5116225589828656, -0.21746470354634723, -7.236057404698464, 1.3609139056437087, -0.5973084155039164, 4.4112949243521, -6.098934579291787, -1.1985314189919904, 7.093083323756188, -4.143971864076555, 3.7294584421180654, -2.134207273379129, 7.688913137444347, -4.470293268707151, -10.129590248327336, 6.933421962884898, 2.816136983523516, -2.7711109074208498, -8.625192231103263, -2.8572894295898292, -5.027543989083474, -0.48242101226519263, 0.15585875092120183, 10.473642606787367, 8.018907391908845, -0.5550732175201445, -3.172786190272501, 10.122769501684218, 4.129195066109179, 3.37839546979268, 2.0196170122072155, -8.163016036670541, -1.248207336005842, -13.11478912335859, 5.692301865412572, -1.3533152499707388, -4.9320045748702785, -0.07935684365445496, 2.3374871345063037, 2.3755289608883365, 3.302143424253692, -5.402855468702123, 8.011492751188626, 11.892322840652223, -4.901487765430441, -4.5360401895913185, -0.09520206654512836, -6.93978431748717, 2.7004788498593775, 0.036463433381730574, -2.2825382533925707, -5.53639341873727, -5.131753808780432, -1.3146610178184608, -2.142390269386834, 9.081179416940905, 7.841096842664585, -2.1025147226383063, -0.41099423908824667, -6.988745491941344, -5.359930651774875, 4.689418570186819, 4.607714210255198, 14.338465301615239, -7.265309497652478, -5.34077210077956, -2.970718101739864, -9.418060813643299, 7.008499219553809, -2.299959118368006, 2.7123070868082717, -9.414372610014402, -5.82481225800881, -9.52137437516631, 3.6344679866562015, -3.4978437925457517, -1.5473650277940059, 7.347562622189474, 2.294231958683565, -3.4126577788803814, 0.10969439162429791, 0.9245307687114216, -4.153234762105761, 11.013069016148236, -7.891415744576764, -2.93607286553654, 0.5583088455360307, 2.5379960619008766, 6.839584309267077, 7.630124357751055, 5.628493225022238, 3.8777487668156407, -6.991077541636995, 2.3236482208947047, -0.38728767365919364, -1.2140132041498386, 1.4684554706208235, -0.09111520911783783, -10.099236794254695, 0.26262755843814506, 3.991523048020206, 10.929023951639845, -9.302420118497428, -6.729344688703474, -1.8255013331281658, 3.0103033457478667, 1.270946998021874, 3.403180210750291, 2.2151101684919334, -0.14670393387192637, 1.7298444102224277, 5.420442545607737, -9.65069078891791, -4.193899158849233, -4.179939300968367, -7.41261479485289, 6.5498797604174275, -6.824007259254681, 1.9384857530308413, -1.6728659771874363, -4.223766334077513, 2.2770258135569157, 0.7221104692120995, -10.837696058255716, -1.6002703135133098, 6.44140747162285, 3.065913943025993, 1.8218630300505478, -7.690405834540663, -0.9641178108460768, -0.9701801670296822, 4.354221256571938, 3.040108864090501, 2.280557977524686, 0.13281848686865566, 7.146930209089855, 3.6444269027192693, -0.8539710190074844, -3.137358981151026, 0.709558979893841, 10.415351909540012, 2.615196894199734, -9.063401195923808, 0.7021892114460948, 4.818701687324323, -0.9495499428051587, 1.3959853232383839, 10.588233751496489, -0.2720771322437843, -0.033304561969104786, 14.147424285103854, -5.183211581194122, -4.789464924596144, 1.1068949790558797, -1.3929377746128349, -5.831274066080012, 5.306817003448322, -10.975389550238404, 0.9061720611870584, -8.601222631437608, 8.314957672075048, -0.012614114258386745, -4.97318714439253, 6.406962343423275, -4.7551271511661986, 2.133319727399197, 10.709356029274616, -15.117666339678072, 0.9656704007615483, 1.4694654241770888, 5.0505509010981795, -0.7713294553569943, 3.6007325626556077, -3.6563347897128406, -4.579465571907244, 0.1827912419126676, -0.1301452229220792, -7.774815051169892, 3.0423292114810225, -0.6620985067405109, -3.412485292072751, 11.89130621364787, -5.650161044543573, 4.4192905715590545, 1.4485636134259066, -4.513565804653134, 2.2949405119481763, -12.709231239237067, 5.12623438658106, -1.813228050183253, -3.4727209642745516, 15.334107315553627, -11.824520275816507, -0.13290432085609194, -9.537582738666543, 2.0576241044229215, 6.658250961142861, -4.050346151899696, -5.6387069681600135, 2.5441672077915687, -0.2258078312378994, -0.2766967192176713, -3.61404214969733, -2.3836988400678427, 4.445702010637127, -3.273222060185596, 1.0737399758707267, 2.147872515742536, -1.407645276650561, -2.9989842333293404, -7.41964778644385, 1.189598553419856, 1.9170314851652484, 10.919219634838454, 0.20537482235885296, 1.6013314660998907, 4.2637725415528145, 0.7603739660239899, -2.7432896259787527, -0.6761958387887907, -0.6167788145456748, 3.6501297303501246, 16.81832669124176, 0.14664859657128224, 7.0104244862321465, 3.103118712193529, 6.091096482804184, 1.1074692576547307, -11.949525497308008, 3.6806722972977206, 11.483125845475353, -0.6864796075541943, 5.232118565454311, -4.292871630157899, -7.94630948896768, 1.4081626646772392, -7.367184951124413, -6.744240770048204, 4.411177352679598, -13.176959518136682, 0.910503383959428, -0.14658279406550329, -9.67584296332849, -10.90429022827909, -6.312862287880677, 3.2344570446054255, 1.6851616095930702, 0.25399064344151, -5.962816305982694, 12.837425710050601, -2.335258388297853, -5.0368160818060135, -8.603071649450802, -3.7627055001019847, 10.401798919727662, -8.82427763077932, 6.639428000962566, -5.858719154163324, -10.773555799217956, -6.344716106579866, 3.17128550530772, -3.940849117900591, 4.430801914483386, -0.5358001202785285, -0.6798719188354192, -3.043749942057181, 6.026753138170165, 13.227327093690457, -8.454166275191685, -2.6375105478644736, 1.850771868769481, 4.288356352634174, -2.835738130449342, 1.6940526207361237, 6.667477522916158, -4.363824918791738, 12.349101326649464, 1.9599413146890148, 12.663870614739634, 9.779049295577341, 0.4721051670253097, 11.642482408281186, -4.140046580375284, -2.7581998991178556, 12.93905775259171, 1.3397705522601906, 2.4081949566564815, 14.748954581652733, -7.1438785086886245, -5.938761260556365, 4.111567843323159, -4.135873055939694, 0.37927625901315887, 0.6068987409392501, 2.7415894411698063, 1.6077341641762635, 9.630745798214173, -8.927125535613886, -2.727446276985281, 3.6964442840756937, -1.0201274287205953, -0.9471430545567988, -2.5083334220891174, 4.595705024994019, 3.3927948011132325, 0.9601925082516323, -9.041561254920515, -3.5970930524542526, -6.681406395751027, 1.2879922647321185, 0.10134492025878039, -1.0340123676319335, -2.9312030875316974, 1.001245968194212, 2.2245886850103056, -9.319943320783024, -4.590091824805675, 1.3074516826536595, -8.781920600352823, -2.105817006990061, -2.5804275299144623, -6.278436098442724, 1.6516633696793117, -9.092107251464599, 6.7330908290742775, -7.331700296728661, 5.497705549517341, -4.62992498671245, 8.540871948197685, -4.901179138044532, 10.643429012425504, -2.7975588953083763, 11.32245574524001, -5.142780089831682, 4.5640194089136115, 0.6903552549570192, -3.036359369448141, -4.033264221098955, 2.7081667220445405, -1.9754040745649137, 2.1569868146163858, 1.7827712970138117, 2.9699939930772308, 6.261762727575896, 2.9731181298177773, -1.2825626540491697, 5.960581295734088, 0.0750236413887167, -1.169688026960488, -6.245479638919542, 0.19451764729576063, 8.5406910404754, -2.439434521171896, -1.9154160928944985, -4.593101085723058, -1.7100456122171528, 0.9568693472780224, -13.4792098691397, 0.16522851336772967, 1.1741366018451718, -3.9409789811155744, -2.2360938390926393, 0.45073369451165535, 3.9558876018392235, -0.584242655341318, -7.71739409655534, 10.580531130425703, -3.817359468355984, 1.099790403585325, 0.5001225832423484, 5.545496104043922, 9.65815012529167, 3.665140754845016, -5.309543177577146, 8.11927603474106, -6.00245435392407, 4.1984791130357975, 3.065142612515702, 6.476003686277689, 6.076577251453287, 9.64300128672969, 13.11653632335856, -0.17471541551256067, 3.419233867982969, 4.3182473709313, 2.3385097260862695, -11.43052074389008, -2.955919627694801, 1.5006424574080524, -0.3793778414752203, -0.9980768629483218, -6.771173957261991, 0.27009237904617583, -5.8301048545781855, -1.8375108687722077, -0.717621187346257, -3.3136004733895903, -0.14029637198507044, 6.607000915204947, 7.046794925381864, -5.960954813697376, -2.7451558489218675, 2.9957041825508393, -4.372446113361736, -10.78762882333192, -7.5217208491662175, 4.138673980668954, -2.2868885946417645, 1.6455280230554261, -0.6826111807749061, -3.0680487534082355, 6.154846594618277, -1.3428859450660562, -5.4864560757253615, -1.589375103314096, 11.5001449759804, -1.5917115515973115, 4.063478719878686, -9.223043949090325, 1.8325294011486617, -1.268489908155554, 10.191379160987951, 1.0005034698774655, 5.337332045955071, 7.3373708792938235, 9.073022235241785, 3.7319163543826637, 2.48112278303313, -5.806287882661179, -0.13077654348036807, -1.1549049146931791, -2.1178553471011075, -13.339859302136562, 3.4052290142038126, -3.563902547368022, -2.7599143568643485, 4.558481816626097, -5.009238380073068, -10.822740149376855, -12.130286233203893, 1.516408302448945, 0.9732117278569035, -2.9590446040298293, -4.717444419089701, 8.506328401892105, -4.690406601058547, 0.925166009240314, -4.943274234750706, -7.347234296761828, -0.4693259760624519, 1.9698837020648452, 12.760300821202254, -8.700461438367887, -0.6856337785617717, -2.828069697274711, -10.327342915440278, -1.2086599802444684, 4.191367622528777, 2.7798018615421944, 1.2987825223343403, 5.11925348045334, -0.13167781830657102, -1.8195319567937236, -1.5712608555045968, -12.12363365235501, -1.7533627933310774, -4.299292400145357, -2.2671469040730408, -9.99155363374699, 1.1954676570161376, 0.4811173065169335, 3.5507536350618345, -9.23707520397162, 0.6622050216934919, 0.77545895150659, 2.2681647843175687, 0.5700973914078599, 2.377480857391631, 0.09944978739212433, -0.025191920136710746, -7.753417929467522, -8.897075593693776, -3.297463852664255, -0.7795783213818873, 0.8528347654768236, -2.4245109598970873, -4.1442137732409865, 3.3332240527980477, 2.054349673263384, 5.407627945943788, 6.108685588490711, 1.1484496194011666, 2.5914941869887795, -3.431871303062599, 5.254609365697804, -2.116396993157265, 1.1894522837259702, -3.711792570359832, -3.78761489409802, -2.7698141777840353, -0.4808975517206877, 6.143517864920315, -4.090964583799228, 0.7057942529081043, 11.875957401845522, 3.545004153766155, -1.765971853948114, 4.6680471293491825, 1.9752638248056316, -10.130223158047956, -6.157056067961725, 1.8979878826115968, 4.116630864833009, -7.776120038809068, -7.902627114782227, 6.394027484818278, -4.149165076118519, -2.3721758004718336, -0.3068855391967295, 1.0483314940487096, 14.246372619622601, 3.303322733965208, -6.041564110592225, 4.071906551446833, -5.678864036076342, 4.061141063101623, -7.172976155265309, -0.19607735628014752, 4.581451694284769, 0.5452413615738267, -5.467367082879013, 1.2242709714869073, 1.9670069607524, 2.6333726829032105, 0.8200979537556161, -3.250076009294627], "bias": 0.4676758651323728}, {"weights": [-2.902398847228336, 4.395432874362924, -1.5209052194369133, 9.945860034003362, -3.3678970667256416, -2.255515585312579, 12.40563531470226, 1.1745909231399558, 2.2238020382400454, 5.503940366138966, 2.968876283022202, 1.4922097163112873, 4.546196144179432, -8.078206284476735, 1.3570994612862044, 0.03913380422203168, -6.4716691637307875, -7.285073014967835, 0.6932788597455875, -4.81273201781822, 1.4878762020705125, -1.2765409941505026, -6.21859714271495, -2.044526795062846, 0.7495323668893686, -11.548722600090517, -4.647389349898513, 5.659293541692642, -6.021149259897577, -4.370199366495256, 6.384761723877543, -6.331575310098, -6.329646322406302, -2.0667845765180393, -2.792560515382901, 8.511168658768574, -5.025322865428069, 2.4528980831606138, -4.160534946519472, 11.011358574102628, -0.2057821309498521, 3.684719392895852, -3.6354833288761754, -10.798533989138468, -0.269096815801204, 3.307575487379556, 1.7096238474086227, 2.242656208529099, 2.6528311910164657, -7.686172750943777, -1.4638374358853306, -4.841411031178076, -1.7992060962535705, -0.12144582294220159, 8.772395225020249, 11.234512353631187, -0.7389932557615562, 11.208944073386089, 9.404087735381607, -8.281233044454057, 11.151239335172068, 5.149060297989078, 4.965738707768519, 6.0928453765916455, 7.426425333254804, 3.278960631190905, -1.157748810807286, -4.432951361134351, -2.749801287394966, 0.9121804334303375, -1.8096122639215686, -17.19761943218186, -0.24055637292977777, -4.749696185058568, -0.010016282616173251, 1.5031810212739507, -2.167381730137918, -3.4101387783471884, -5.941516057523889, 2.336449837105901, -3.357079796709812, -6.041236040044368, -10.769234172909785, -3.992140289178033, -1.822025656764279, -10.08106690608036, 3.8676736530333513, 0.9660254171631408, -1.193109777441955, -8.915906639370567, -3.76720703539498, -5.955252024557614, 1.937302563307396, 4.987751344054657, -1.6500887993194955, 7.191607450117819, -0.8293096862466488, -2.3088420078031424, 7.0825817210835815, 1.9553795699754608, -3.687047190225165, 2.179020411848571, -3.9498328557351905, -10.433152666810663, 4.647644134674796, 3.4777370089303847, -8.591864248799506, 6.220962941970455, -2.0015404602731333, -12.248632673609936, -4.049937171413309, 3.6146749295312826, -4.150875559464671, 6.877469394502563, 4.169930029693096, 5.37794433673377, -5.656064986369459, 3.5213995443850292, -5.668923394986912, -7.594567781530692, -4.015092071110783, -4.64658960779243, 5.013374939403447, -0.6972296559603207, -1.7510811740241812, -3.7209029244250367, 0.2297297808866456, 0.7720596694112195, -8.302355669201573, -3.8086431343794884, -3.7339942460286064, -6.811421220885255, 0.67291013578795, -3.0652697686117625, -5.183482905603053, -0.8920166419774468, 2.139078458803687, -1.568584779101513, 4.333068600487889, -2.4995463075710203, -1.5780011065970865, 6.90886046749385, -6.753213111438271, 4.180669805946447, 8.355652456584059, -5.453376698690273, 7.5264459600287665, -2.425591203077721, -0.7413841907562109, -2.9717288550812726, -4.521164001645365, 6.202121189044495, -4.305782931165566, 4.019953061083543, 1.1192494684183125, -1.7024600064749889, -5.599671381927235, 1.541488517074108, 7.89298814476752, 3.050909514068602, 7.462092784117962, 2.913401652250432, 6.141310654018177, -3.4172042768093602, 5.255006738710182, 4.737701573335875, 1.542880528775058, -3.107688060831728, 3.917527989263424, -1.864647402670803, -0.3122372434169716, 4.369828153335628, -2.5923978724903343, -1.8185334276775544, 3.30821111668983, -10.957985630306668, -2.8492483266228303, -8.361940003852748, -2.3023354674660017, 3.6018397375154323, 1.1874889059295402, -3.168049311430109, -9.72832597604277, 6.602171551881363, -8.63604736659897, 3.4448058543476625, -5.188977009459126, -3.620051013791736, 1.2452270693354317, -3.3870855617611286, -0.8964300082491927, -2.069470291458668, 3.035295320686513, 10.716842798986907, -7.382854686275766, 9.386568678493752, -3.1747448847363273, -4.844140500088057, 4.461607980393187, 3.5741627276624928, -4.972838789963196, -0.6105748832798619, 0.9613117985684831, -4.284615257775058, 6.684165431757516, 3.896966102877838, 0.020606594590948383, 6.2996423996428295, 6.219545495411862, -2.543523965340767, -2.342156818921171, 7.212254600218409, 0.047537892995511186, 4.847891270227566, 1.3293326061622004, 1.746027996333969, -4.9905967423681705, -3.4410033163046014, 4.429597186612839, 1.8886700148817508, -9.704620913642012, -3.4877780920235084, 5.457991073482462, 5.735728143781702, 3.402316349883264, 9.779821284648035, 1.5049536470411307, 3.39145853582667, 0.5058174607458559, -6.823211683607261, 1.8001031322163465, 4.159767061103143, -8.033885236632377, 0.9241551265406144, 2.1777501700088973, -2.9040564777004265, 6.936963973884967, 6.307595649925226, 4.490567309118329, -6.050413119886913, -0.6499298035833385, -4.20763043640536, -0.7941140562176334, 3.0417279551232643, -1.6986118999851734, 3.600724415749074, 3.2066146289698634, -0.9758144551761705, 2.040864771385236, 2.359503028965539, 5.3167052862915645, -5.373783799862758, 2.3194332234733723, 3.19711279366392, 5.597351523990662, 4.158854803084203, -6.361230998263119, 6.243749727151481, 4.4613654729041805, -0.03406739650653041, -4.7407221761489104, -3.6337847480037224, -2.5376918716042884, 2.395927393039848, 5.38081646429744, -1.8170210398198878, -3.8394030283503007, 3.029318480855053, 0.1912295308220865, 2.933777332208695, 8.355738483193312, 1.9074292663492074, -8.804246379640004, 12.346483474614482, 5.250757696705868, 2.1155257014528908, 7.7392412736273215, -4.511578962894485, -9.26178399962828, 3.537586251794515, 2.857730769808136, -0.8839206555238551, -3.7961978982946922, 6.156096885264959, 0.28780085430984387, -1.1628118581773077, -4.647968980261149, -6.4891725777760865, -0.9511484300148737, -0.14765557632422732, -3.3626201725498746, 3.4161823783207104, -3.100330076968249, -4.055225576571471, -9.790570197859733, 3.0722621162491945, -2.1457312378123388, -0.43591921612321693, 3.186048682300776, -2.9077338956049177, -3.210492775254005, 2.7590656722922198, -7.850135545798326, 4.727534183481609, -1.5111981935538215, -3.631034710001427, 3.26229916361807, 7.121227131115083, 1.950541142650609, -4.140643414866154, 2.091807140206172, -1.3773539407959026, -6.721877261725014, -1.372472572223552, -3.141744314704365, 1.6578252780315563, -0.11772673836365853, -3.2428800380564646, -1.8502525558709109, 0.94764528955011, -2.2922802507937248, -7.742100172633707, 0.45955177734532604, -0.5647893486510794, -5.144081466102209, -2.2771740324392398, -0.1285871510059004, 0.4016439773496734, -3.6497725832418015, -0.641528496870744, 5.686670557457995, 2.0844001744677785, 5.023869402964649, -3.5390791764027174, -6.102936578900751, 4.021823193458848, 2.970783801946425, 1.95053434277547, 2.0289203782745715, 1.947729732896437, 3.322728142717094, 7.449798980674529, -1.7013641819494891, -5.7689374282727215, 5.052400579488267, 3.4960065963098765, 5.789028383216428, 4.59041556124835, -1.825325103425567, 1.9176817925579406, 7.313570022626311, -5.410015260631455, 6.811633913017175, -0.42080180809234324, 7.5147063845191395, 0.24711245345441107, 1.4937793510520168, -8.658724319289163, -3.8721050761239844, 2.7692296860109136, 7.603780759826048, -3.426355876939422, 1.8392583555016695, 0.6932924867174405, 1.9151146842453277, -0.1083208213128719, -5.872865495545807, -6.8850597346468705, 0.6099952236130748, -8.629865721223245, 1.5109349567273092, -1.4408584273654055, -2.4164857256441783, -5.465107130121643, 5.8733924403321485, -3.7069864962875574, -1.3047897966656659, 3.1547286121694835, -9.78245423388997, 0.7987465086728809, -1.2944816728753679, 6.289874530034695, 1.1880661303216733, 9.293552214859021, -4.378861729955672, -2.9186115732636777, -2.7958651160807424, -8.304832280701714, -3.2348660429345095, 8.052657787944337, -0.3511571725371082, 2.621458310945408, -1.1462220889987667, 0.6805742557662536, -8.387104224444753, 2.2240688712223657, 1.314234007310016, 6.0085392576696375, 0.905011150721929, -0.05097637260610565, -3.224055782587187, -0.8235225303143787, -4.857799713056354, 2.8362936747433083, 4.629497272440804, 0.3823044059675686, 7.203728481560787, 1.057749944553748, 2.6222511792876046, 4.531462031291263, 6.767114397297343, -1.5813688644302013, 2.8521280262810516, -2.2368081507489683, -5.4710046218792705, 5.494702502883502, 1.6550566594175433, -1.490241342481449, -2.184638214843094, 3.13683733491167, -3.9217802872559693, 4.574753531855325, -2.5520270075668363, -6.351966230179203, 6.223059300383711, 2.5284165181296063, 0.23751828461612126, -3.152598287394575, 1.9161772729510502, 5.595134426968525, 5.9859325958185385, -5.129864477851994, -0.21084558443008172, -5.454566076716362, 1.2084647784767366, 0.6514205824224877, -1.7202106545012241, 1.798694182928623, -1.7701832846950298, -2.281582974897909, 3.4915003660686406, 0.3036024578232067, -2.5782736090019434, -1.6710874951060364, -2.09690950258181, -4.06867436390527, 1.6044819067434584, -4.84460938261605, -2.2785410522757554, -0.31635105697939014, 6.766776200071236, 3.0250742130132204, -3.7852296448425258, -1.4458901537927076, -0.20088728451032087, 0.5313648019024093, -7.95236392153492, 2.4744381740497117, -2.3634343876623425, 5.034910133533025, 4.538342899016631, -0.48732002782073824, -4.864934802207394, -1.1773664284850969, -5.236950440757567, 0.4853967976033571, 0.19171098420986799, -0.59399167773097, 7.459708114862665, 2.533321149697316, -3.7648894880728, 9.895732983435114, -1.7387597116649565, 3.0042189505846357, 6.179825083927708, 2.6735992835687936, 1.772010601227147, 1.5284886158982323, -3.0859319098900864, 0.4264918288688819, 7.933122162490098, -1.0643518920995263, 4.145817283456438, 1.0801480170136786, 2.3155943082145485, 2.610499901884747, -6.011394459660614, 1.4571296460211185, -3.836542871905156, 3.0310891157323483, 5.713915100137995, 1.2121238535020642, -7.175962630164757, -3.132107204733905, -4.220417650423119, -2.780383791877948, 1.7854295872676018, -0.621043190220726, -1.995254853392262, -4.531989835156798, 1.8075539053734369, -5.3167367686287665, -5.232804576483164, -4.483518032188162, -1.7128236495854379, -0.6937881777463835, -2.579881589024741, 7.767573066511333, -3.4069390180363173, -3.550006170493693, -0.1395948745924665, -0.43357512336716103, 2.1840011280199505, 4.167265161669951, -0.5412242831934642, 2.0531692683231686, -4.521517028034817, -1.0598725757384855, -1.6897463402285509, -6.811893711863254, -2.7935198130716734, 2.426852898690686, -3.0744585139618588, -0.6085680651861062, -2.2155566954420767, 9.880925573315908, -5.641005827647583, -0.32806363855282816, 2.294917656387623, -0.7051279271405255, -1.4358101301076973, -2.8262055320204653, -0.7987420416233519, -4.0277778617009465, -2.2277967908948475, 6.995998677600664, -0.3855635411606737, 7.794137664416714, 1.693582933482346, -4.951561846691894, 0.12475329519235144, -2.771111601980183, 0.06838412081294167, 6.58958781073634, 4.081503655913675, 2.19057323567351, 1.778318709067837, 3.386065687190372, 1.3321902550675575, -3.0943116009754483, -3.7300029975825604, 4.018034583533979, -0.8100464094138277, 3.5900606547338105, -1.613193087342378, 6.582639314940488, -2.140093911336435, 3.36449371356509, 0.5800682925277876, -1.261005976264866, -0.15965617392613493, 0.614801831674989, -1.4609331029605812, 3.8743820933850803, 2.4637946190715296, 4.510845585544192, -0.7090160083770679, -0.40082089860034165, 1.0400035299816417, 3.3346331842376222, 4.828697701233358, 7.205623307564057, 0.7086841018427049, 2.775255870640276, 1.4731653161273366, -2.211413255021108, -0.17302713556600513, -2.8684982322129926, -1.0353392974747546, 5.0947336226243065, 5.038353251181255, 0.6340040055078107, -0.13841474243098198, -2.3326316394374143, -2.021236279211124, -4.154054914229841, 0.6508295981614551, 5.066916103069881, 7.148501747889619, 5.3353798987768695, -1.3276488108420885, 1.178489582839488, 3.266724470861346, 7.112030011027404, -4.496657601806877, -0.8313782445614686, 1.8308305878738602, -1.5288437640548047, -4.25371253297492, 4.153516054510605, -4.550039703540907, 3.5675837175861296, 2.2123967198377885, 8.859313746928105, 4.414637988137382, -1.6515372624946743, 2.261486223990477, 0.6078744658874836, -10.887470263511977, 1.7036146185721672, -1.0168014942395516, -6.727658437977092, 0.3275458752463519, 4.587717163402352, -4.207373914488775, -0.4365496754978085, 8.72953995809744, -0.07491061930288759, 11.470641601259446, 5.909346203141971, -1.8238998372826596, -1.2377087106281741, 7.933732723278718, 4.475008870346992, 0.4323434416225994, 10.619580776143161, 3.7539500773308223, -0.44766195362118477, 9.662579829855428, 0.4862096526050885, 0.14415162851015564, 10.214753118259178, 1.049215515957178, 0.08181906076638372, 3.8555861918467595, -1.0069412515408969, 1.5453893824571558, 8.018816670986586, 3.9148768689569136, -7.3940643524842455, 6.996663429218706, -1.9132302854674073, -2.220973573769584, 1.3783981574719117, 2.904655167270615, -7.73771340932892, 0.09231993846091265, 2.6234553038455446, -3.5519837887768726, -1.2403945455360716, 7.172489835942276, -3.1069492229149813, 3.3998774284131876, 3.5175962462934023, -2.220957602454071, -2.9306201390799216, 4.932645684671091, -6.960766898297815, 1.2080805847732239, 3.3687403913610523, -3.705738837473987, 3.073193985287829, 9.123066114514671, -3.203582865622093, 4.848764169168312, 1.227017131059204, -8.097129480822137, -2.1400977580160325, -1.4992177253747165, -6.899462524915399, 4.9627113197676165, 3.230258115917826, -12.45611027823271, -3.5625827824383722, -4.234909098284196, -4.084459026075814, -3.4113437962623134, 1.4026268095251473, -5.6528369322430025, -1.7992461446525885, 4.832515991522435, 2.462756656033287, -2.219410125552004, -2.7087601216811112, 1.9337088927121058, 0.6228003458279096, 5.698592019514877, 3.0386801065678815, -1.2425821472654106, -2.9950004184309207, -8.885519519235004, -2.1027528571401657, 2.487241719997926, -3.959497376604448, 1.2556086839970575, 1.5322914393699842, 0.5314686032117392, -2.2261016845895756, -1.0439833681588158, -4.51922514686411, 5.27695652349411, -4.139313197155768, -10.603651722266193, 10.726445112809907, 2.712539792106961, -3.5305572576125455, 2.510236560509226, -1.7539081582516316, -8.092766459743379, -0.0658660516533635, -2.985384331511834, -9.17142472304339, 4.4532673267425125, -0.12640198708547448, -0.638381228411556, 5.435430846971526, -0.7189119607826399, -5.161143445407172, 8.859920971232997, -3.033436406768884, -6.126062576495112, -1.62444352778367, -3.0957779160625445, -5.124463104936878, 2.924537008521925, 0.10183456049819944, -2.2399538256652427, 4.525276356569756, -3.4276058118299875, -9.832240116035063, 4.936540823496339, 5.024538266728113, -3.06767683568734, -0.2344941666169563, -0.6722568783156396, -0.08558173652352447, 2.4199549514269414, -1.3923242501371902, -3.735144657383642, 6.86882443176426, 5.522700945599958, -7.764341475392532, 7.234983977179333, 5.6225867088569945, -6.950413058687187, 2.2536960078779025, 4.459457264689161, -2.5665464629442174, 1.0523314644928263, 3.486686791588139, 0.22407541183634377, 0.17596039233809252, -0.42288154351402324, -1.696222135239669, 0.14967141299944653, 1.5350338704563262, -1.8997002180650457, 0.22474805828873454, 3.8283774076346577, 1.0699252288490626, 3.9720821460249933, 2.4406247462472646, 0.23218374823476634, -0.5382739816916907, -2.0149301604190937, -4.67806082569176, -2.2943312177015436, 7.33238272887848], "bias": 0.4676758651323728}]}, "count": 768, "output_layer": {"count_neurons": 4, "neurons": [{"weights": [-17.94726022469682, 43.00635804774152, 36.71247887919778, -64.96969864822344], "bias": 0.5905130572675092}, {"weights": [44.916827190765346, -21.42917728954668, -109.07110454285107, 42.95249971483038], "bias": 0.5905130572675092}, {"weights": [6.83919318376367, -101.5701683613629, 73.71715641113964, 23.73451864480906], "bias": 0.5905130572675092}, {"weights": [-68.59977726262635, 44.23986520290026, 19.86223127200642, 4.051494290705138], "bias": 0.5905130572675092}]}, "total_error": 8.73108154328946}